timestamp,gyro_device_id,gyro_bias[0],gyro_bias[1],gyro_bias[2],accel_device_id,accel_bias[0],accel_bias[1],accel_bias[2],mag_device_id,mag_bias[0],mag_bias[1],mag_bias[2]
72426776,5505042,0.00047070612,-0.00026006257,-0.00017428202,5373970,-0.006300366,0.009744203,0.0126803145,396809,0.0,0.0,0.0
73425817,5505042,0.0004759302,-0.00025311954,-6.689642e-05,5373970,-0.0063644527,0.009498376,0.017332712,396809,0.0,0.0,0.0
74424736,5505042,0.0004956142,-0.00023930137,2.7012062e-05,5373970,-0.006141233,0.00898521,0.024299353,396809,0.0,0.0,0.0
75423801,5505042,0.0005087271,-0.00022125003,6.723719e-05,5373970,-0.0057972744,0.008719398,0.030110965,396809,0.0,0.0,0.0
77431802,5505042,0.0005354264,-0.00016528515,7.364698e-05,5373970,-0.004285015,0.00890347,0.016224619,396809,0.0,0.0,0.0
78430797,5505042,0.0004802003,-0.00013790447,9.214325e-05,5373970,0.0047085485,0.014697189,0.0024299943,396809,0.0,0.0,0.0
79439809,5505042,0.00045756483,-0.00015447762,9.80006e-05,5373970,0.0034437166,0.0054878904,0.0028888586,396809,0.0,0.0,0.0
80443802,5505042,0.00044704764,-0.00014867773,9.856306e-05,5373970,-0.027459966,-0.012008437,0.021742763,396809,0.0,0.0,0.0
81441935,5505042,0.00044477129,-0.00014698747,9.955805e-05,5373970,-0.029289035,0.017267002,0.016453693,396809,0.0,0.0,0.0
82441810,5505042,0.00043907439,-0.00014126208,9.877087e-05,5373970,-0.015263779,0.04222141,-0.0041359914,396809,0.0,0.0,0.0
83440717,5505042,0.00043409385,-0.00013730186,9.7816184e-05,5373970,-0.0087688165,0.06479741,-0.013087393,396809,0.0,0.0,0.0
84439809,5505042,0.0004251078,-0.00013213673,9.7364355e-05,5373970,-0.014868527,0.09044764,-0.032226384,396809,0.0,0.0,0.0
85447719,5505042,0.00040957544,-0.00013596292,9.5203904e-05,5373970,-0.015445917,0.12073278,-0.038583167,396809,0.0,0.0,0.0
86441824,5505042,0.0003771691,-0.00015048348,0.00010029241,5373970,-0.010594105,0.14164849,-0.04900855,396809,0.0,0.0,0.0
87446820,5505042,0.000333478,-0.00015269499,0.000118453994,5373970,-0.022695137,0.1580717,-0.05725003,396809,0.0,0.0,0.0
88449714,5505042,0.00027223208,-0.00012587976,0.00013354751,5373970,-0.011017034,0.15711266,-0.057572626,396809,0.0,0.0,0.0
89449736,5505042,0.00019219711,-0.0001121873,0.00014751259,5373970,0.019362293,0.15992334,-0.035012398,396809,0.0,0.0,0.0
90448726,5505042,0.00015237994,-0.00012817411,0.00014773679,5373970,0.021793004,0.16373734,-0.0152753,396809,0.0,0.0,0.0
91447714,5505042,0.00012846517,-0.00016250409,0.00015142445,5373970,0.0064534247,0.16939972,0.0010560531,396809,0.0,0.0,0.0
92446716,5505042,7.906483e-05,-0.00021997519,0.00015332726,5373970,-0.019727627,0.1692378,0.005598826,396809,0.0,0.0,0.0
93455808,5505042,1.9032466e-05,-0.00025055782,0.0001471501,5373970,-0.030884158,0.16943008,0.010012753,396809,0.0,0.0,0.0
94454728,5505042,-1.1172725e-05,-0.00019650572,0.00017205297,5373970,-0.031776424,0.16073579,0.014942693,396809,0.0,0.0,0.0
95453930,5505042,2.9014962e-05,-3.9909097e-05,0.00025036352,5373970,-0.034580994,0.15747717,0.019671613,396809,0.0,0.0,0.0
96456723,5505042,4.376175e-05,0.00022705462,0.0002589781,5373970,-0.038929608,0.1617349,0.0059397933,396809,0.0,0.0,0.0
97460813,5505042,-2.693517e-05,0.00044202965,0.00017948309,5373970,-0.04554864,0.16874844,-0.02216112,396809,0.0,0.0,0.0
98464800,5505042,-0.00015809175,0.0005699991,0.00013108378,5373970,-0.057738394,0.17165752,-0.07591323,396809,0.0,0.0,0.0
99463737,5505042,-0.00019879345,0.00063753093,0.00014968815,5373970,-0.06221994,0.17289157,-0.11662197,396809,0.0,0.0,0.0
100462728,5505042,-0.00022001863,0.0007899937,0.0001815537,5373970,-0.06493771,0.18817772,-0.10763587,396809,0.0,0.0,0.0
101461742,5505042,-0.0002593438,0.0008783211,0.00017505258,5373970,-0.07157388,0.19586314,-0.06506812,396809,0.0,0.0,0.0
102467715,5505042,-0.00031736097,0.0009216718,0.0001376245,5373970,-0.08020679,0.19853309,-0.013298897,396809,0.0,0.0,0.0
103466712,5505042,-0.0003881181,0.00092302065,6.718559e-05,5373970,-0.08924197,0.19736603,0.026702125,396809,0.0,0.0,0.0
104463791,5505042,-0.00042805556,0.0009276256,2.247663e-05,5373970,-0.091494985,0.19476514,0.035345092,396809,0.0,0.0,0.0
105472817,5505042,-0.00047788644,0.00095831597,-7.284924e-05,5373970,-0.096171744,0.19203813,0.05520617,396809,0.0,0.0,0.0
106476723,5505042,-0.0004406023,0.0010088726,-0.00019911306,5373970,-0.09957234,0.19207704,0.067688815,396809,0.0,0.0,0.0
107474868,5505042,-0.0003933506,0.0009117549,-0.00025017152,5373970,-0.09576739,0.1884606,0.084860146,396809,0.0,0.0,0.0
108482897,5505042,-0.00037289257,0.00075668003,-0.0002449937,5373970,-0.09328032,0.18819623,0.11091925,396809,0.0,0.0,0.0
109478838,5505042,-0.00048364996,0.0006754204,-0.000121601865,5373970,-0.092306934,0.18711793,0.087092094,396809,0.0,0.0,0.0
110486798,5505042,-0.0006221512,0.0006742043,-5.4175466e-06,5373970,-0.0920685,0.18723045,0.052685015,396809,0.0,0.0,0.0
111481872,5505042,-0.0007378469,0.00070067035,6.5323744e-05,5373970,-0.09436423,0.18770283,0.016892524,396809,0.0,0.0,0.0
112489805,5505042,-0.0008112242,0.0007211371,0.00012212415,5373970,-0.09823061,0.18434954,-0.020184606,396809,0.0,0.0,0.0
113493732,5505042,-0.0008513617,0.000720668,0.00017144375,5373970,-0.1058571,0.18179885,-0.0595998,396809,0.0,0.0,0.0
114496817,5505042,-0.0008774113,0.00071717694,0.0002293916,5373970,-0.112674884,0.18018253,-0.08471254,396809,0.0,0.0,0.0
115495815,5505042,-0.00095272047,0.0007513631,0.0003957402,5373970,-0.108111694,0.17595237,-0.08503827,396809,0.0,0.0,0.0
116494737,5505042,-0.0009820304,0.0008179736,0.000688491,5373970,-0.103603736,0.17400385,-0.10067029,396809,0.0,0.0,0.0
117498717,5505042,-0.000984603,0.0009125184,0.000936118,5373970,-0.09925727,0.178805,-0.11130018,396809,0.0,0.0,0.0
118497791,5505042,-0.0009342385,0.0010086672,0.0011835442,5373970,-0.090493225,0.18507244,-0.107944466,396809,0.0,0.0,0.0
119504877,5505042,-0.0008122533,0.0010747734,0.0013949409,5373970,-0.08181909,0.18937297,-0.11011187,396809,0.0,0.0,0.0
120509729,5505042,-0.00067145174,0.0010393714,0.0014415454,5373970,-0.06395762,0.18431161,-0.0897847,396809,0.0,0.0,0.0
123510736,5505042,-0.00045699268,0.0010070243,0.0015575141,5373970,-0.042148624,0.1779388,-0.020719912,396809,0.0,0.0,0.0
124519852,5505042,-0.00034739348,0.0010031564,0.0015042223,5373970,-0.033137303,0.18214945,0.0028796047,396809,0.0,0.0,0.0
125518801,5505042,-0.0003822682,0.0009866786,0.0014586186,5373970,-0.02568951,0.18300247,0.020561388,396809,0.0,0.0,0.0
126517803,5505042,-0.0004042991,0.0010550071,0.0015868337,5373970,-0.024055757,0.18164685,0.014794273,396809,0.0,0.0,0.0
127521808,5505042,-0.00032033963,0.0011630674,0.0017850511,5373970,-0.030050749,0.182804,-0.0131496135,396809,0.0,0.0,0.0
128520734,5505042,-0.00014207489,0.0012499661,0.0019656876,5373970,-0.032756858,0.18534079,-0.033094946,396809,0.0,0.0,0.0
129526737,5505042,-4.0143066e-05,0.0012849085,0.0019913658,5373970,-0.034418054,0.18796995,-0.048789766,396809,0.0,0.0,0.0
130528724,5505042,1.06044e-05,0.0012911204,0.001965916,5373970,-0.039640594,0.19081141,-0.06322446,396809,0.0,0.0,0.0
131527733,5505042,-2.6587843e-05,0.001210485,0.0019657698,5373970,-0.03772298,0.19237567,-0.05990172,396809,0.0,0.0,0.0
132534715,5505042,4.063328e-06,0.0012014105,0.0019495226,5373970,-0.035288163,0.1926211,-0.055127922,396809,0.0,0.0,0.0
133533723,5505042,0.00010932912,0.001320531,0.0019280859,5373970,-0.02515651,0.19333665,-0.032400284,396809,0.0,0.0,0.0
134540747,5505042,0.0001001537,0.0014543674,0.0017891219,5373970,-0.016925437,0.19978806,-0.030248791,396809,0.0,0.0,0.0
135544809,5505042,2.798056e-05,0.0016137324,0.0015397485,5373970,-0.0067319474,0.20658976,-0.032453965,396809,0.0,0.0,0.0
136543804,5505042,-9.5787684e-05,0.0016038954,0.0014004537,5373970,-0.009931344,0.21142422,-0.06098987,396809,0.0,0.0,0.0
137548806,5505042,-0.00024723337,0.0015713255,0.0011734165,5373970,-0.015771741,0.21329652,-0.087653615,396809,0.0,0.0,0.0
138543804,5505042,-0.00036436992,0.0014927163,0.0009467503,5373970,-0.022210445,0.21265389,-0.095930286,396809,0.0,0.0,0.0
139551821,5505042,-0.00042850582,0.0013745122,0.00078085554,5373970,-0.025554622,0.20875941,-0.08662077,396809,0.0,0.0,0.0
140556827,5505042,-0.00045668278,0.0013801401,0.0007848919,5373970,-0.023377443,0.20556925,-0.078229986,396809,0.0,0.0,0.0
141560731,5505042,-0.0005628156,0.0015784332,0.00084384525,5373970,-0.020007165,0.20226957,-0.082325466,396809,0.0,0.0,0.0
142565973,5505042,-0.0004855773,0.0017264197,0.0009999576,5373970,-0.02279406,0.2154048,-0.108350284,396809,0.0,0.0,0.0
143564839,5505042,-0.0003773977,0.0017282723,0.0011210962,5373970,-0.023710495,0.22331725,-0.122308314,396809,0.0,0.0,0.0
144568734,5505042,-0.00039139838,0.0017823708,0.0011583826,5373970,-0.013940037,0.22650981,-0.11477772,396809,0.0,0.0,0.0
145574011,5505042,-0.00047200968,0.0018414891,0.0011724412,5373970,-0.003935254,0.22918557,-0.097171396,396809,0.0,0.0,0.0
146572976,5505042,-0.0005041,0.001842464,0.0011639475,5373970,-0.00025506548,0.22234821,-0.08379442,396809,0.0,0.0,0.0
147576740,5505042,-0.00051837624,0.0019470552,0.0012703064,5373970,-0.0010100607,0.22110899,-0.07696664,396809,0.0,0.0,0.0
148581810,5505042,-0.0004500201,0.002019934,0.0013326665,5373970,-0.002274495,0.21587406,-0.072829925,396809,0.0,0.0,0.0
149580913,5505042,-0.00034169163,0.002154806,0.0014081242,5373970,-0.0025522483,0.21509057,-0.06737056,396809,0.0,0.0,0.0
150581758,5505042,-0.00024889203,0.0021696035,0.0014109095,5373970,0.00013055239,0.20779403,-0.057841238,396809,0.0,0.0,0.0
151585811,5505042,-0.00021131117,0.0021911503,0.0014245486,5373970,0.0021681245,0.20698594,-0.055632632,396809,0.0,0.0,0.0
152589815,5505042,-0.00011755513,0.0022092955,0.0014586907,5373970,0.000908042,0.19974859,-0.055075325,396809,0.0,0.0,0.0
153594801,5505042,-5.1839113e-05,0.002184874,0.0014357456,5373970,0.0029021415,0.18739045,-0.04879632,396809,0.0,0.0,0.0
154598741,5505042,3.922951e-05,0.0021764124,0.0014229339,5373970,0.00036303702,0.17817764,-0.052732237,396809,0.0,0.0,0.0
155603910,5505042,0.000101234844,0.0021710386,0.0014554856,5373970,0.0012282771,0.17024136,-0.047562536,396809,0.0,0.0,0.0
156607733,5505042,-0.000121617115,0.002105821,0.0014777732,5373970,0.017394237,0.16670896,-0.015814325,396809,0.0,0.0,0.0
157607804,5505042,-0.0003171255,0.0022216027,0.0015131256,5373970,0.014894033,0.1691937,-0.024572695,396809,0.0,0.0,0.0
158617729,5505042,-0.0003522611,0.0021876385,0.0013933042,5373970,-0.007957933,0.1770214,-0.054062206,396809,0.0,0.0,0.0
159618794,5505042,-0.00039526535,0.0019247984,0.001143763,5373970,-0.01815085,0.17590225,-0.062072966,396809,0.0,0.0,0.0
160621815,5505042,-0.00046741034,0.0018288543,0.00094764534,5373970,-0.020328015,0.17305025,-0.067395456,396809,0.0,0.0,0.0
161619939,5505042,-0.00054856477,0.0018223033,0.00083846814,5373970,-0.023087416,0.17154866,-0.074625894,396809,0.0,0.0,0.0
162630744,5505042,-0.000638951,0.0018164932,0.0007722941,5373970,-0.025917012,0.16375598,-0.073139265,396809,0.0,0.0,0.0
163639719,5505042,-0.00068978197,0.001783457,0.00071968674,5373970,-0.026070757,0.15595834,-0.06368223,396809,0.0,0.0,0.0
164643866,5505042,-0.00076447206,0.0018361075,0.00068173365,5373970,-0.015235973,0.15177126,-0.02304525,396809,0.0,0.0,0.0
165639791,5505042,-0.00088447926,0.0018819182,0.00065830426,5373970,-0.0077501084,0.14443956,0.0112164905,396809,0.0,0.0,0.0
166643928,5505042,-0.0010742868,0.0019548892,0.0006859023,5373970,-0.0071482714,0.1345045,0.03383753,396809,0.0,0.0,0.0
167639799,5505042,-0.001257255,0.0021565072,0.0006995955,5373970,-0.0054037613,0.13045232,0.060914397,396809,0.0,0.0,0.0
168638717,5505042,-0.0014354726,0.0022098385,0.0007310269,5373970,0.003273374,0.121938206,0.08304054,396809,0.0,0.0,0.0
169643023,5505042,-0.001552034,0.0023161683,0.0007738354,5373970,0.011720093,0.11480568,0.08756892,396809,0.0,0.0,0.0
170648727,5505042,-0.0014913426,0.0024268322,0.00082703953,5373970,-0.008259572,0.113854185,0.039049953,396809,0.0,0.0,0.0
171653802,5505042,-0.0013479145,0.0024332206,0.00094382156,5373970,-0.032155648,0.12240112,-0.012869635,396809,0.0,0.0,0.0
172657849,5505042,-0.0012765583,0.0024816392,0.0009797257,5373970,-0.036888774,0.12767124,-0.055097736,396809,0.0,0.0,0.0
173662728,5505042,-0.0012777398,0.0025176902,0.0009902309,5373970,-0.0384369,0.12904105,-0.07910281,396809,0.0,0.0,0.0
174667805,5505042,-0.001289037,0.0025368882,0.0010228447,5373970,-0.040667675,0.12631965,-0.094809435,396809,0.0,0.0,0.0
175671807,5505042,-0.0012822256,0.0025927096,0.0010899571,5373970,-0.051772803,0.117985494,-0.10232952,396809,0.0,0.0,0.0
176671743,5505042,-0.0012360602,0.0026393344,0.0011544478,5373970,-0.05829715,0.1090418,-0.09805333,396809,0.0,0.0,0.0
177673725,5505042,-0.0011605842,0.0026627025,0.0012083256,5373970,-0.05985471,0.09949194,-0.0858084,396809,0.0,0.0,0.0
178671811,5505042,-0.0011586268,0.0026989875,0.0012422148,5373970,-0.051985793,0.09040036,-0.0691516,396809,0.0,0.0,0.0
179671720,5505042,-0.0013231441,0.0028931396,0.0011800437,5373970,-0.035361532,0.10124625,-0.04944038,396809,0.0,0.0,0.0
180680796,5505042,-0.0015365608,0.0030891935,0.0012897971,5373970,-0.05749149,0.109836966,-0.097707145,396809,0.0,0.0,0.0
181680752,5505042,-0.0018113764,0.0031042595,0.0012457889,5373970,-0.08456292,0.10667096,-0.15355012,396809,0.0,0.0,0.0
182680860,5505042,-0.0020104046,0.003190573,0.0012129514,5373970,-0.09073619,0.11178692,-0.1727047,396809,0.0,0.0,0.0
183680797,5505042,-0.002095641,0.0030862868,0.0011167618,5373970,-0.088719234,0.116131335,-0.16459699,396809,0.0,0.0,0.0
184679791,5505042,-0.0021174748,0.0029460993,0.0010042352,5373970,-0.08481159,0.12282076,-0.13565259,396809,0.0,0.0,0.0
185689027,5505042,-0.0021261473,0.002860972,0.00089988153,5373970,-0.07719125,0.13203412,-0.106155396,396809,0.0,0.0,0.0
186686724,5505042,-0.0021016093,0.002812769,0.00078563817,5373970,-0.072000526,0.1391861,-0.08727849,396809,0.0,0.0,0.0
187684816,5505042,-0.0020346015,0.0026949549,0.0006140856,5373970,-0.056251384,0.1433726,-0.055129193,396809,0.0,0.0,0.0
188686722,5505042,-0.0019865984,0.0026996785,0.00039543537,5373970,-0.04228353,0.14373009,-0.012075958,396809,0.0,0.0,0.0
189689800,5505042,-0.0021342055,0.0028639084,0.00014123105,5373970,-0.024239391,0.14143306,0.037063632,396809,0.0,0.0,0.0
190689716,5505042,-0.0023084953,0.0031577225,-7.5131175e-05,5373970,-0.0118698655,0.13186818,0.052746695,396809,0.0,0.0,0.0
191689821,5505042,-0.0023866878,0.0034157287,-0.00031206998,5373970,-0.015922124,0.12731457,0.021787656,396809,0.0,0.0,0.0
192694977,5505042,-0.0023348883,0.0035081194,-0.0004075917,5373970,-0.026655428,0.12518686,-0.023115532,396809,0.0,0.0,0.0
193693966,5505042,-0.002255453,0.0035603913,-0.00042541017,5373970,-0.034027316,0.124547966,-0.06645823,396809,0.0,0.0,0.0
194694731,5505042,-0.002223657,0.0035680055,-0.00042942516,5373970,-0.036009196,0.11952586,-0.095526844,396809,0.0,0.0,0.0
195693976,5505042,-0.0022527226,0.0035531784,-0.00038337905,5373970,-0.03543563,0.11411211,-0.11367648,396809,0.0,0.0,0.0
196692903,5505042,-0.0023056169,0.0035578876,-0.0003286096,5373970,-0.032392647,0.10814018,-0.122580044,396809,0.0,0.0,0.0
197693811,5505042,-0.0024589244,0.0035280192,-0.0001709834,5373970,-0.027067047,0.10136042,-0.11381907,396809,0.0,0.0,0.0
198693773,5505042,-0.002624781,0.0034940527,1.8079892e-05,5373970,-0.025616704,0.098471336,-0.1216748,396809,0.0,0.0,0.0
199698801,5505042,-0.002715838,0.0034935807,0.0001329459,5373970,-0.020568606,0.09448601,-0.12692894,396809,0.0,0.0,0.0
200702818,5505042,-0.0027179033,0.0034785238,0.00017786014,5373970,-0.011335391,0.09350407,-0.11450702,396809,0.0,0.0,0.0
201707938,5505042,-0.0026649153,0.003639335,0.0002783053,5373970,0.004843716,0.08812744,-0.076792516,396809,0.0,0.0,0.0
202712723,5505042,-0.0026454434,0.0037934408,0.0004870064,5373970,0.001567101,0.08496965,-0.0675239,396809,-0.0013756704,-0.0074809906,0.014015465
203717727,5505042,-0.0026321097,0.003945392,0.00072402676,5373970,-0.00908046,0.08466251,-0.06277777,396809,-0.0014570521,-0.0075094737,0.013949323
204715893,5505042,-0.0025237731,0.0039951317,0.0008609842,5373970,-0.017522061,0.07760619,-0.05342435,396809,-0.0013958478,-0.0075497,0.014151391
205721823,5505042,-0.0024772368,0.0039426903,0.000944098,5373970,-0.017627822,0.07053061,-0.030405348,396809,-0.0013769859,-0.0075307335,0.014212207
206721731,5505042,-0.0022428187,0.0038890813,0.0008907858,5373970,-0.0074825417,0.058244646,0.0102607375,396809,-0.0013399308,-0.0075206705,0.014338622
207721812,5505042,-0.002170075,0.0038705645,0.00083589903,5373970,-0.009540418,0.0594566,0.0033376687,396809,-0.0013773314,-0.007503981,0.014311329
208721728,5505042,-0.0021915026,0.0037930799,0.0007876803,5373970,-0.018177653,0.061160047,-0.020201826,396809,-0.0013950516,-0.007489285,0.0142720565
209721867,5505042,-0.002216797,0.003665423,0.0006800355,5373970,-0.029749144,0.063449174,-0.03694348,396809,-0.0013899378,-0.0074568633,0.014220793
210720824,5505042,-0.0021793323,0.003527858,0.00076206826,5373970,-0.03576841,0.06211893,-0.05277233,396809,-0.0012577341,-0.0074260347,0.014146162
211725723,5505042,-0.0020814936,0.003489661,0.00090756424,5373970,-0.046139505,0.06086109,-0.08831981,396809,-0.0010798177,-0.0073851687,0.014145028
212720871,5505042,-0.0019591087,0.0034601705,0.0009774759,5373970,-0.056499872,0.061728887,-0.13640353,396809,-0.0010117543,-0.00742835,0.014094191
213725720,5505042,-0.0018576797,0.0034241308,0.0010248706,5373970,-0.06571684,0.06462881,-0.15828566,396809,-0.0010241419,-0.0074318526,0.01395497
214730013,5505042,-0.0017849742,0.0034587383,0.0010744993,5373970,-0.069635995,0.06845291,-0.15326092,396809,-0.0010182856,-0.007466881,0.013833477
215725715,5505042,-0.0016968776,0.0035021824,0.0011028012,5373970,-0.0721338,0.071376875,-0.12624046,396809,-0.0010206798,-0.0074756197,0.013737278
216729727,5505042,-0.0016062511,0.003557487,0.0010999207,5373970,-0.0745394,0.07574698,-0.08743479,396809,-0.0010304148,-0.007470236,0.013681694
217729027,5505042,-0.0014504313,0.0036279317,0.0010276517,5373970,-0.07541578,0.0822654,-0.044994656,396809,-0.0010525484,-0.007472213,0.013631936
218734813,5505042,-0.0013955969,0.0036226725,0.0009675513,5373970,-0.06425439,0.084595755,-0.0047857,396809,-0.0010631058,-0.0074806926,0.013609729
219734804,5505042,-0.001391455,0.0036685413,0.00093915826,5373970,-0.06462797,0.08351003,-0.006185702,396809,-0.0010253469,-0.007476344,0.013717698
220734832,5505042,-0.001398664,0.0036714382,0.0010066216,5373970,-0.0653532,0.084250174,-0.018465422,396809,-0.0009908238,-0.0075041233,0.013867751
221729746,5505042,-0.0013241724,0.0037041127,0.0010813468,5373970,-0.06454366,0.08533003,-0.04659732,396809,-0.0009956921,-0.007532512,0.014029354
222734884,5505042,-0.0012500458,0.0037744741,0.001133376,5373970,-0.05755363,0.088631645,-0.0763778,396809,-0.0010453162,-0.0075518033,0.01403244
223734735,5505042,-0.0011866784,0.0038574731,0.0011538687,5373970,-0.041210353,0.09576014,-0.08914862,396809,-0.0011086002,-0.007551001,0.013942749
224738730,5505042,-0.0011808841,0.003873755,0.0011402165,5373970,-0.01868483,0.10313153,-0.091965154,396809,-0.0011572023,-0.0075308536,0.013811807
225742995,5505042,-0.0012188279,0.0038678632,0.0011292923,5373970,0.0020962143,0.11046709,-0.08375278,396809,-0.0011850358,-0.0075057102,0.013685942
226744816,5505042,-0.0012791306,0.0038221816,0.0011156382,5373970,0.023633348,0.11632169,-0.068650536,396809,-0.0012007446,-0.0074828295,0.013561017
227743740,5505042,-0.001310315,0.0038585537,0.00108951,5373970,0.038094666,0.12355594,-0.045533467,396809,-0.0012196738,-0.007465946,0.013472134
228748795,5505042,-0.0013602709,0.0039164135,0.0011072134,5373970,0.0411367,0.124376915,-0.04014043,396809,-0.0012322845,-0.0074659144,0.013434323
229753715,5505042,-0.0014006704,0.0040083393,0.0011206799,5373970,0.039999045,0.12717304,-0.042340573,396809,-0.0012489902,-0.0074637705,0.013406975
230758733,5505042,-0.0014495169,0.0041384827,0.0011637921,5373970,0.02703416,0.12832986,-0.058097113,396809,-0.0012711828,-0.00746311,0.013397939
231758735,5505042,-0.0016318291,0.004178957,0.0011739044,5373970,0.02350128,0.13179329,-0.05930105,396809,-0.001151975,-0.007416146,0.013498205
232758031,5505042,-0.0016415266,0.0040965667,0.001053554,5373970,0.019893117,0.13112503,-0.07009436,396809,-0.0010068042,-0.0073872157,0.013580797
233758732,5505042,-0.0016275815,0.0041133706,0.0010566653,5373970,0.01763335,0.13178757,-0.09444351,396809,-0.001009296,-0.0073843263,0.013434495
234757727,5505042,-0.0016112489,0.0040636268,0.0010436454,5373970,0.0154935075,0.13253932,-0.100092925,396809,-0.0010133139,-0.0073486753,0.013351611
235767807,5505042,-0.0016082441,0.0040946216,0.0010447918,5373970,0.015799468,0.13176194,-0.099508435,396809,-0.0010128687,-0.00736664,0.013291633
236767810,5505042,-0.0015908281,0.004156273,0.0010027438,5373970,0.01623781,0.13210337,-0.07204656,396809,-0.0010225085,-0.007366088,0.013257812
237767792,5505042,-0.0015718209,0.0041952664,0.0009666529,5373970,0.022978628,0.13426517,-0.02882667,396809,-0.0010265021,-0.0073306686,0.013250415
238771877,5505042,-0.0014845645,0.004209324,0.0009076167,5373970,0.036658306,0.14109586,0.018222438,396809,-0.0009314919,-0.0072624846,0.013399817
239777805,5505042,-0.001380608,0.0041788793,0.0008602589,5373970,0.043007772,0.13879548,0.038296115,396809,-0.0010193159,-0.00719271,0.013303296
240782734,5505042,-0.0013472714,0.0042362954,0.00085796975,5373970,0.04475277,0.13787667,0.03742027,396809,-0.0011347726,-0.0071486193,0.013195792
241782725,5505042,-0.0012793186,0.0041250857,0.0009365286,5373970,0.027510019,0.13594651,0.00044353318,396809,-0.0013397224,-0.0070556924,0.012848493
242782720,5505042,-0.0012495805,0.004074316,0.0010543641,5373970,0.014737879,0.1367202,-0.013164754,396809,-0.0014920876,-0.006972217,0.01264887
243787800,5505042,-0.0012958198,0.00403672,0.0011461197,5373970,0.013053077,0.1335103,-0.020610228,396809,-0.0015730697,-0.0069068866,0.012529946
244788024,5505042,-0.0013165256,0.0039266963,0.0012231134,5373970,0.012791852,0.13079889,-0.026067687,396809,-0.0017388922,-0.006826941,0.012280655
245786952,5505042,-0.001429253,0.0038422463,0.0013239431,5373970,0.014470312,0.13054459,-0.03067937,396809,-0.0018107333,-0.006764293,0.01211525
246785866,5505042,-0.0015408249,0.0037541462,0.0014237218,5373970,0.014590315,0.13198905,-0.030694012,396809,-0.0018509957,-0.0067083184,0.011999754
247786951,5505042,-0.0015418313,0.0037555138,0.0014833976,5373970,0.014799728,0.12970681,-0.024309427,396809,-0.0018509957,-0.0067083184,0.011999754
248793723,5505042,-0.0016841476,0.0037285183,0.0015857153,5373970,0.015316977,0.13090491,-0.0110691525,396809,-0.001988205,-0.006669096,0.011278262
249791821,5505042,-0.0018393648,0.003620656,0.0015908184,5373970,0.018036092,0.13158305,0.007042697,396809,-0.0021189842,-0.0066372976,0.010585432
250801841,5505042,-0.0020443574,0.00342468,0.0015727535,5373970,0.024276834,0.13499153,0.009532467,396809,-0.0021511202,-0.00661424,0.010193232
251801723,5505042,-0.0022311972,0.0033264677,0.0015961152,5373970,0.02806265,0.1453135,0.0065625915,396809,-0.002174624,-0.006570571,0.009661998
252801978,5505042,-0.0023272168,0.003140171,0.0015631574,5373970,0.029298048,0.15464129,0.0050481013,396809,-0.0021712254,-0.0065192827,0.009054098
253806721,5505042,-0.002430404,0.0030078802,0.0015313777,5373970,0.02840717,0.16411602,-0.00738369,396809,-0.0021594856,-0.0064756367,0.008659804
254806723,5505042,-0.0024644535,0.0028441413,0.0014467476,5373970,0.027427847,0.16943872,-0.009783527,396809,-0.0021394803,-0.0064382055,0.008319006
255808725,5505042,-0.0023872782,0.0027128365,0.0013354927,5373970,0.024794674,0.17080602,-0.020409908,396809,-0.0021394803,-0.0064382055,0.008319006
256806740,5505042,-0.002298195,0.0026248347,0.0012291109,5373970,0.024665687,0.17085998,-0.015289095,396809,-0.0021394803,-0.0064382055,0.008319006
257811804,5505042,-0.0022698706,0.0025714727,0.0011602842,5373970,0.024457594,0.17188054,-0.0144567415,396809,-0.0021394803,-0.0064382055,0.008319006
258811741,5505042,-0.0022102685,0.0024654393,0.0010719186,5373970,0.023369022,0.1716419,-0.016306372,396809,-0.0021394803,-0.0064382055,0.008319006
259815793,5505042,-0.0021624842,0.0023510533,0.0009961515,5373970,0.02153433,0.17045051,-0.023951143,396809,-0.0021394803,-0.0064382055,0.008319006
260815934,5505042,-0.0021692002,0.002272531,0.0009566647,5373970,0.019093832,0.17197597,-0.04305215,396809,-0.0021394803,-0.0064382055,0.008319006
261820714,5505042,-0.0021166774,0.0021853095,0.00089153857,5373970,0.018208858,0.17011274,-0.04376534,396809,-0.0021394803,-0.0064382055,0.008319006
262825755,5505042,-0.0021213584,0.002065641,0.0008350388,5373970,0.017181545,0.16996288,-0.03282156,396809,-0.0021394803,-0.0064382055,0.008319006
263830792,5505042,-0.0021655925,0.0019724844,0.00078048644,5373970,0.015892293,0.16898549,-0.01192567,396809,-0.0021394803,-0.0064382055,0.008319006
264835724,5505042,-0.0021670281,0.0019497209,0.0007213515,5373970,0.015315714,0.1685929,-0.002186115,396809,-0.0021394803,-0.0064382055,0.008319006
265839949,5505042,-0.00220844,0.0018663276,0.0006672119,5373970,0.013819189,0.16791047,0.0015989245,396809,-0.0021394803,-0.0064382055,0.008319006
266840811,5505042,-0.002250433,0.001826649,0.0006222644,5373970,0.012849348,0.16860479,0.0027823038,396809,-0.0021394803,-0.0064382055,0.008319006
267840720,5505042,-0.0022744338,0.0017889574,0.0005741187,5373970,0.012161203,0.16848168,-0.0030049086,396809,-0.0021394803,-0.0064382055,0.008319006
268845829,5505042,-0.0023796172,0.0018151592,0.00054307556,5373970,0.011628666,0.17286211,-0.0026884633,396809,-0.0021394803,-0.0064382055,0.008319006
269849800,5505042,-0.0023912042,0.0018305631,0.0004990711,5373970,0.011535278,0.17358391,-0.008512205,396809,-0.0021394803,-0.0064382055,0.008319006
270854724,5505042,-0.002352118,0.0017677415,0.00047537233,5373970,0.010240747,0.17323856,-0.013782864,396809,-0.0021562264,-0.006418316,0.008067265
271854801,5505042,-0.0024369585,0.0016633038,0.00037565784,5373970,0.0021521414,0.18783867,-0.024314424,396809,-0.0023927805,-0.006282002,0.0064813164
272854873,5505042,-0.0024896667,0.0017441832,5.6628146e-06,5373970,-0.001092055,0.19583893,-0.030981185,396809,-0.0025831359,-0.0061812303,0.0050336905
273853780,5505042,-0.002411969,0.0018391524,-0.0002970141,5373970,-0.0046171853,0.19008465,-0.0511935,396809,-0.0027257,-0.0060864645,0.0042076954
274858801,5505042,-0.0023038036,0.0018812552,-0.00032254372,5373970,-0.007162649,0.18063927,-0.058626693,396809,-0.0026932764,-0.006016772,0.004222972
275853965,5505042,-0.0022724157,0.0019127929,-0.0002665399,5373970,-0.011860601,0.1777434,-0.061598945,396809,-0.0026155156,-0.0059440713,0.0044552293
276863813,5505042,-0.0022772984,0.0019270064,-0.0002013333,5373970,-0.019396923,0.18024486,-0.057597257,396809,-0.0025693537,-0.0058625103,0.0046363357
277862735,5505042,-0.002281238,0.0019301337,-0.00017665596,5373970,-0.027950354,0.18039721,-0.045619898,396809,-0.0025924363,-0.005785493,0.0047136047
278869718,5505042,-0.0022556721,0.0019196627,-0.0001481315,5373970,-0.031695135,0.18116592,-0.019658117,396809,-0.0026107524,-0.0057218615,0.00471102
279872736,5505042,-0.0022252693,0.0019495882,-0.00015945539,5373970,-0.034747574,0.18630297,-0.0023737052,396809,-0.0026107524,-0.0057218615,0.00471102
280871824,5505042,-0.0022056848,0.0019627041,-0.0001514645,5373970,-0.032934733,0.19122188,0.016536778,396809,-0.0026107524,-0.0057218615,0.00471102
281876813,5505042,-0.0021818695,0.0019789054,-0.00014272021,5373970,-0.031307504,0.19626884,0.035941318,396809,-0.0026107524,-0.0057218615,0.00471102
282871748,5505042,-0.0021204676,0.0020724072,-0.00014399344,5373970,-0.033250716,0.20511547,0.04493485,396809,-0.0026107524,-0.0057218615,0.00471102
283876970,5505042,-0.0020450875,0.0020323973,-0.0001412875,5373970,-0.032807644,0.2018555,0.035518404,396809,-0.0026107524,-0.0057218615,0.00471102
284875902,5505042,-0.0019785387,0.0020137955,-0.00013996799,5373970,-0.03219454,0.20177391,0.021511229,396809,-0.0026107524,-0.0057218615,0.00471102
285880803,5505042,-0.0019358565,0.0019818111,-0.00012139222,5373970,-0.03170763,0.2030773,0.00065501773,396809,-0.0026107524,-0.0057218615,0.00471102
286884963,5505042,-0.0019201605,0.0018993308,-9.7444085e-05,5373970,-0.031027162,0.20313218,-0.02692606,396809,-0.0026107524,-0.0057218615,0.00471102
287882760,5505042,-0.0019950352,0.0018733069,-7.179509e-05,5373970,-0.031370945,0.20462605,-0.042816058,396809,-0.0026107524,-0.0057218615,0.00471102
288880727,5505042,-0.00208926,0.0018608483,-6.1528466e-05,5373970,-0.031617492,0.20494588,-0.045388404,396809,-0.0026107524,-0.0057218615,0.00471102
289890842,5505042,-0.0021937995,0.0019259087,-5.806984e-05,5373970,-0.032256074,0.20791705,-0.049250074,396809,-0.0026107524,-0.0057218615,0.00471102
290895794,5505042,-0.002256696,0.0019731924,-6.835222e-05,5373970,-0.032191254,0.20857826,-0.04574166,396809,-0.0026107524,-0.0057218615,0.00471102
291899983,5505042,-0.0023413827,0.0019807003,-8.8746834e-05,5373970,-0.032736495,0.20850478,-0.05310303,396809,-0.0026107524,-0.0057218615,0.00471102
292898953,5505042,-0.0024459166,0.0019302099,-0.00012720749,5373970,-0.035450373,0.21424213,-0.04991035,396809,-0.002748103,-0.0056531928,0.0047712578
293904802,5505042,-0.0024353939,0.0019119543,-0.00018642664,5373970,-0.03672345,0.21720694,-0.048531186,396809,-0.0028178592,-0.0056464314,0.005329441
294904729,5505042,-0.0023901456,0.0019468635,-0.00023110425,5373970,-0.039396603,0.21708208,-0.014103168,396809,-0.0026411382,-0.0056392564,0.005987312
295903799,5505042,-0.0023181334,0.0019567853,-0.00023062812,5373970,-0.04311181,0.21157707,0.024204567,396809,-0.0024862858,-0.005619234,0.006453673
296908806,5505042,-0.0022427207,0.001947809,-0.0001959258,5373970,-0.044177294,0.20427339,0.020140657,396809,-0.0024090456,-0.0055965763,0.006881759
297913845,5505042,-0.0021871934,0.0019555867,-0.000119221586,5373970,-0.05181917,0.19927047,0.011128046,396809,-0.0024578357,-0.0055856067,0.0073322593
298913794,5505042,-0.0021447714,0.0019841727,-4.5717694e-05,5373970,-0.0577048,0.19535597,-0.0027885176,396809,-0.0024790328,-0.005582452,0.0074740034
299913951,5505042,-0.002096274,0.0019963107,-2.4030098e-05,5373970,-0.061615124,0.19935942,-0.013279691,396809,-0.0024790328,-0.005582452,0.0074740034
300912851,5505042,-0.0020597682,0.0020263363,-9.21068e-06,5373970,-0.06417343,0.20105901,-0.026503576,396809,-0.0024790328,-0.005582452,0.0074740034
301912803,5505042,-0.0020174193,0.0020630828,1.3050781e-05,5373970,-0.06597854,0.20374075,-0.04571281,396809,-0.0024790328,-0.005582452,0.0074740034
302912971,5505042,-0.0020757944,0.0021065774,2.7916878e-05,5373970,-0.06757703,0.2081194,-0.060095653,396809,-0.0024790328,-0.005582452,0.0074740034
303912717,5505042,-0.0020734114,0.002178195,4.522331e-05,5373970,-0.06843585,0.21070136,-0.054120965,396809,-0.0024790328,-0.005582452,0.0074740034
304911732,5505042,-0.0020745925,0.0021599857,6.949673e-05,5373970,-0.06777684,0.20752096,-0.049095508,396809,-0.0024790328,-0.005582452,0.0074740034
305920948,5505042,-0.0020934134,0.0021207142,8.975951e-05,5373970,-0.06680089,0.20486721,-0.03583871,396809,-0.0024790328,-0.005582452,0.0074740034
306921810,5505042,-0.0021777146,0.002101102,0.00012915992,5373970,-0.068051204,0.20694877,-0.034697197,396809,-0.0024790328,-0.005582452,0.0074740034
307920800,5505042,-0.0021769286,0.0019765382,0.0002305576,5373970,-0.07027633,0.20491174,-0.029469235,396809,-0.0025994529,-0.005563956,0.0075051864
308919948,5505042,-0.002235596,0.0019463628,0.00030232672,5373970,-0.07467133,0.20806627,-0.014008576,396809,-0.0027267046,-0.0055753295,0.007656895
309918871,5505042,-0.0021870418,0.001977844,0.00025750522,5373970,-0.07460354,0.20616013,-0.008468661,396809,-0.0027052748,-0.005566215,0.0077468934
310919730,5505042,-0.0021524038,0.002011305,0.00021339199,5373970,-0.070916526,0.20126016,-0.0022440546,396809,-0.0026800146,-0.0055501293,0.0078239795
311919836,5505042,-0.0021636563,0.00206063,0.00023217943,5373970,-0.0691029,0.20005655,0.007980981,396809,-0.0027092313,-0.0055247764,0.007685728
312919729,5505042,-0.0021853496,0.00209032,0.0002551371,5373970,-0.07231192,0.20334288,0.009844303,396809,-0.0027256722,-0.0054877177,0.0074754166
313928731,5505042,-0.0021924807,0.0021056447,0.00027038707,5373970,-0.0746967,0.20465727,0.008195055,396809,-0.0027437056,-0.005461263,0.007382587
314933917,5505042,-0.0021536674,0.0021033168,0.00026644138,5373970,-0.07630467,0.20434271,0.0103247585,396809,-0.0027471043,-0.005459016,0.0073633613
315932757,5505042,-0.002147747,0.0021215363,0.0002501691,5373970,-0.077878244,0.20798863,0.006923675,396809,-0.0027471043,-0.005459016,0.0073633613
316937718,5505042,-0.0021446564,0.0022041986,0.00026158462,5373970,-0.08107757,0.21161526,0.0069821132,396809,-0.0027471043,-0.005459016,0.0073633613
317932865,5505042,-0.0020688777,0.0021930519,0.00025822528,5373970,-0.08150098,0.20961526,0.0021590714,396809,-0.0027471043,-0.005459016,0.0073633613
318936729,5505042,-0.0020251893,0.0021805358,0.00024681754,5373970,-0.081246115,0.20912614,-0.0019291175,396809,-0.0027471043,-0.005459016,0.0073633613
319941761,5505042,-0.002010664,0.002122815,0.00023334472,5373970,-0.07938899,0.20863014,0.0032268916,396809,-0.0027471043,-0.005459016,0.0073633613
320941799,5505042,-0.002025572,0.0021303648,0.00021928578,5373970,-0.07960571,0.21189123,0.005753599,396809,-0.0027471043,-0.005459016,0.0073633613
321941819,5505042,-0.0020346898,0.002132821,0.00022206624,5373970,-0.079486266,0.21280178,0.0072862827,396809,-0.0027471043,-0.005459016,0.0073633613
322945729,5505042,-0.002007152,0.002057885,0.00021984888,5373970,-0.07773979,0.20820463,0.010591116,396809,-0.0027471043,-0.005459016,0.0073633613
323947712,5505042,-0.0019743082,0.0020057627,0.00021423206,5373970,-0.07677145,0.20513092,0.0055651017,396809,-0.0027471043,-0.005459016,0.0073633613
324950727,5505042,-0.0019136058,0.0019684844,0.00020787786,5373970,-0.07593099,0.20305055,-0.004664107,396809,-0.0027471043,-0.005459016,0.0073633613
325955960,5505042,-0.0018367958,0.0019210108,0.0001896531,5373970,-0.07511038,0.20188956,-0.008080477,396809,-0.0027471043,-0.005459016,0.0073633613
326955791,5505042,-0.0017867261,0.0019010268,0.00018156275,5373970,-0.075293995,0.20432596,-0.0074260808,396809,-0.0027783753,-0.005430661,0.007194918
327956009,5505042,-0.0018594769,0.0019726248,0.0001626045,5373970,-0.07975018,0.21505953,-0.0030262629,396809,-0.0029168546,-0.005366732,0.0064921067
328954849,5505042,-0.0018460347,0.0020580937,-1.5079247e-05,5373970,-0.08039796,0.21465033,-0.008127691,396809,-0.0029839147,-0.0053196065,0.005820662
329957725,5505042,-0.0018819311,0.0021494904,-0.00012770724,5373970,-0.07478895,0.20965436,-0.0057676425,396809,-0.0029520243,-0.0052850456,0.005249929
330954966,5505042,-0.0019816337,0.0022210616,-0.00023641683,5373970,-0.07382404,0.21146064,0.0036946025,396809,-0.0029350005,-0.0052543133,0.0046650474
331959791,5505042,-0.002087708,0.0022749302,-0.00033459763,5373970,-0.07776735,0.21418712,0.012980911,396809,-0.0029211321,-0.0052209334,0.0040854714
332959829,5505042,-0.002161532,0.0022905741,-0.00043703098,5373970,-0.08271944,0.21689487,0.018653484,396809,-0.0029061993,-0.0051969467,0.0036571505
333958754,5505042,-0.0021696966,0.0023306333,-0.00052186474,5373970,-0.08804656,0.21318716,0.019878564,396809,-0.0029061993,-0.0051969467,0.0036571505
334960715,5505042,-0.002162663,0.0023079375,-0.00060196436,5373970,-0.08840713,0.20972897,0.022061886,396809,-0.0029061993,-0.0051969467,0.0036571505
335968722,5505042,-0.0021582993,0.0022958915,-0.00067159685,5373970,-0.08906125,0.2086201,0.016354643,396809,-0.0029061993,-0.0051969467,0.0036571505
336968852,5505042,-0.002121413,0.002226392,-0.0007339477,5373970,-0.08775049,0.20684916,0.0044678184,396809,-0.0029061993,-0.0051969467,0.0036571505
337968726,5505042,-0.0021186552,0.0021996628,-0.0008025728,5373970,-0.0882577,0.20850314,-0.006862819,396809,-0.0029061993,-0.0051969467,0.0036571505
338969053,5505042,-0.0020992802,0.002139869,-0.0008496337,5373970,-0.08844575,0.20673573,-0.018353865,396809,-0.0029061993,-0.0051969467,0.0036571505
339976961,5505042,-0.0020966048,0.0020224403,-0.00088975276,5373970,-0.08782338,0.20230043,-0.028092908,396809,-0.0029061993,-0.0051969467,0.0036571505
340977726,5505042,-0.002193275,0.0018735445,-0.000996099,5373970,-0.09310265,0.20081548,-0.02756658,396809,-0.0029613224,-0.0051759607,0.0034336452
341977813,5505042,-0.002260286,0.0017603785,-0.000962937,5373970,-0.10095674,0.19753243,-0.047474414,396809,-0.0029678023,-0.005141075,0.002937876
342982817,5505042,-0.0022296635,0.0018836758,-0.0007416096,5373970,-0.094546676,0.1998843,-0.06691634,396809,-0.0027882992,-0.005091917,0.002997597
343981746,5505042,-0.002227862,0.0020373797,-0.00048432074,5373970,-0.086337544,0.20761718,-0.086912476,396809,-0.0026275632,-0.0050255097,0.0032136461
344986723,5505042,-0.002238552,0.0021560753,-0.00029098772,5373970,-0.08018605,0.21568882,-0.08135419,396809,-0.0025117288,-0.0049601444,0.0033133782
345981818,5505042,-0.002256201,0.0022331134,-0.00014803486,5373970,-0.077791534,0.22128415,-0.056311242,396809,-0.0024426791,-0.0049001295,0.0033885033
346985812,5505042,-0.0022543478,0.0022453186,-2.8111082e-05,5373970,-0.074232064,0.22120126,-0.02370272,396809,-0.0023961482,-0.0048493235,0.0033980035
347990866,5505042,-0.0022709172,0.0022595571,4.654259e-05,5373970,-0.07621737,0.22657405,0.0043397015,396809,-0.002389326,-0.004837049,0.0034110604
348990716,5505042,-0.0022936668,0.0022988224,0.00010121425,5373970,-0.07904747,0.23117113,0.022530375,396809,-0.002389326,-0.004837049,0.0034110604
349991016,5505042,-0.0022509028,0.0023027626,0.0001289522,5373970,-0.079087146,0.22966719,0.017363956,396809,-0.002389326,-0.004837049,0.0034110604
350989872,5505042,-0.0022102508,0.0023122309,0.00013264631,5373970,-0.07768712,0.23064636,-0.0041951523,396809,-0.002389326,-0.004837049,0.0034110604
351994722,5505042,-0.0021681557,0.0023002836,0.00013151749,5373970,-0.075453214,0.2305083,-0.030614179,396809,-0.002389326,-0.004837049,0.0034110604
352999806,5505042,-0.0021412151,0.00226983,0.00013440046,5373970,-0.07348922,0.23078299,-0.050663244,396809,-0.002389326,-0.004837049,0.0034110604
353999809,5505042,-0.0022104818,0.0022740313,0.00015371367,5373970,-0.07438946,0.23360378,-0.0644577,396809,-0.002389326,-0.004837049,0.0034110604
355003817,5505042,-0.0022160443,0.0022498458,0.00016791602,5373970,-0.07423539,0.23306337,-0.06579796,396809,-0.002389326,-0.004837049,0.0034110604
356007809,5505042,-0.002211261,0.0022062182,0.0001764496,5373970,-0.07374227,0.23220012,-0.057957206,396809,-0.002389326,-0.004837049,0.0034110604
357002719,5505042,-0.0021317203,0.002178118,0.00018184514,5373970,-0.07186224,0.23154448,-0.047336858,396809,-0.002389326,-0.004837049,0.0034110604
358007728,5505042,-0.002147691,0.0021288404,0.00018801806,5373970,-0.07244069,0.2328573,-0.038165547,396809,-0.002389326,-0.004837049,0.0034110604
359007714,5505042,-0.0021007825,0.0020138582,0.00016827995,5373970,-0.07107034,0.22722246,-0.03276885,396809,-0.002389326,-0.004837049,0.0034110604
360011904,5505042,-0.0021730298,0.001887882,9.791805e-05,5373970,-0.07440192,0.23059718,-0.035034068,396809,-0.0024751995,-0.004777988,0.0033938242
361006729,5505042,-0.0021781675,0.0018850528,7.5117176e-05,5373970,-0.07505649,0.23726156,-0.039855234,396809,-0.0025014458,-0.0047684107,0.0036929473
362010714,5505042,-0.0020881689,0.0018737052,6.0425635e-05,5373970,-0.075846635,0.2355893,-0.023108657,396809,-0.0023863092,-0.0047601536,0.0041824076
363010788,5505042,-0.0020541502,0.0018949013,6.74415e-05,5373970,-0.07756318,0.2328638,-0.0015666906,396809,-0.0022769847,-0.0047440995,0.0045116902
364015745,5505042,-0.0020583908,0.0019467502,0.00011165069,5373970,-0.08241612,0.23210102,0.0074433926,396809,-0.0022477007,-0.0047289343,0.0048010848
365014796,5505042,-0.0020385846,0.0019552335,0.00014863157,5373970,-0.083147936,0.22226626,0.0004687146,396809,-0.0022616365,-0.004724075,0.005104072
366019809,5505042,-0.0020664076,0.0020025328,0.00019685367,5373970,-0.08595792,0.22205967,-0.019568611,396809,-0.002266517,-0.0047242492,0.005206556
367019818,5505042,-0.00203823,0.0020121795,0.0002255804,5373970,-0.08727532,0.21875009,-0.038501993,396809,-0.002266517,-0.0047242492,0.005206556
368018953,5505042,-0.0020571158,0.0020664243,0.00025037085,5373970,-0.089128785,0.21878293,-0.05665649,396809,-0.002266517,-0.0047242492,0.005206556
369023799,5505042,-0.0020880909,0.0021528697,0.0002665347,5373970,-0.09280038,0.22696218,-0.06641404,396809,-0.002266517,-0.0047242492,0.005206556
370022808,5505042,-0.002084719,0.0021381592,0.0002774623,5373970,-0.09208119,0.22348353,-0.062350422,396809,-0.002266517,-0.0047242492,0.005206556
371022740,5505042,-0.0020621903,0.002091077,0.00028597953,5373970,-0.0898322,0.21954963,-0.05401523,396809,-0.002266517,-0.0047242492,0.005206556
372022809,5505042,-0.0020888327,0.0020364134,0.00030073448,5373970,-0.08849689,0.22068234,-0.04587592,396809,-0.002266517,-0.0047242492,0.005206556
373026733,5505042,-0.0021070628,0.0019265779,0.00037148807,5373970,-0.089571275,0.22078492,-0.04714575,396809,-0.0023042958,-0.004714467,0.005245337
374021732,5505042,-0.0020916006,0.0017729106,0.0004719173,5373970,-0.09289351,0.21859711,-0.0345328,396809,-0.0024497143,-0.0047076787,0.0053451913
375031861,5505042,-0.002086353,0.0018004506,0.00049304,5373970,-0.09373391,0.21946813,-0.019500434,396809,-0.0024797642,-0.0047141537,0.005494045
376030749,5505042,-0.0021024824,0.001858374,0.0004361598,5373970,-0.09026234,0.21585838,0.0031869852,396809,-0.0024120933,-0.004708232,0.0056771776
377031979,5505042,-0.002144851,0.0019300869,0.00039434218,5373970,-0.08479888,0.21495768,0.02535587,396809,-0.0023872654,-0.0047003664,0.0058006477
378031812,5505042,-0.002153529,0.0019678248,0.00038886725,5373970,-0.07902679,0.21038763,0.039709162,396809,-0.0023900757,-0.0046828254,0.0057866373
379032013,5505042,-0.0021924241,0.0020136177,0.00041026503,5373970,-0.07925379,0.21133217,0.04238555,396809,-0.0024029496,-0.004660046,0.0057539647
380039972,5505042,-0.002205878,0.0020511656,0.00043422813,5373970,-0.07946252,0.20998986,0.04584477,396809,-0.0024079545,-0.004649859,0.0057439217
381045801,5505042,-0.0021945373,0.002064184,0.00044419238,5373970,-0.08365986,0.20952986,0.022930576,396809,-0.0024079545,-0.004649859,0.0057439217
382040738,5505042,-0.0021900597,0.002122594,0.00047227106,5373970,-0.08896185,0.21043907,-0.00092383404,396809,-0.0024079545,-0.004649859,0.0057439217
383049719,5505042,-0.0021947615,0.0021890036,0.00049216725,5373970,-0.092025414,0.21463978,-0.011028748,396809,-0.0024079545,-0.004649859,0.0057439217
384054736,5505042,-0.0021762317,0.0022685667,0.00051415316,5373970,-0.09372289,0.2178694,-0.014530369,396809,-0.0024079545,-0.004649859,0.0057439217
385054882,5505042,-0.0021031813,0.0022594433,0.0005223904,5373970,-0.092623815,0.21844842,-0.015378324,396809,-0.0024079545,-0.004649859,0.0057439217
386058732,5505042,-0.0020102446,0.0021933548,0.00052519055,5373970,-0.08970362,0.21603094,-0.011645988,396809,-0.0024079545,-0.004649859,0.0057439217
387058719,5505042,-0.0019572421,0.0020556417,0.00052173476,5373970,-0.085567474,0.21223627,0.011740289,396809,-0.0024079545,-0.004649859,0.0057439217
388053892,5505042,-0.0019237301,0.0019476791,0.0005123988,5373970,-0.08352936,0.21169506,0.030041678,396809,-0.0024079545,-0.004649859,0.0057439217
389057725,5505042,-0.0018691076,0.0017923067,0.00049913756,5373970,-0.08111275,0.20658255,0.038909204,396809,-0.0024079545,-0.004649859,0.0057439217
390062729,5505042,-0.0018539074,0.0016844539,0.00048400406,5373970,-0.08065851,0.20492755,0.045874283,396809,-0.0024079545,-0.004649859,0.0057439217
391061921,5505042,-0.0018905762,0.0016051214,0.0005262593,5373970,-0.08249358,0.20798463,0.047288872,396809,-0.0024247796,-0.0046262215,0.005661098
392062737,5505042,-0.001971392,0.0015922926,0.00052148954,5373970,-0.08682761,0.21726336,0.05035758,396809,-0.0025045618,-0.0045637367,0.0052999365
393061816,5505042,-0.0019422997,0.0016469815,0.00030673217,5373970,-0.08673236,0.21624169,0.042421915,396809,-0.0025142808,-0.0045086686,0.004955922
394061727,5505042,-0.0019502902,0.0017749456,0.00014182505,5373970,-0.08430665,0.21303715,0.04007203,396809,-0.0024918695,-0.004459485,0.0046811085
395061811,5505042,-0.0020307128,0.0018847327,-2.009173e-06,5373970,-0.0797454,0.21127492,0.048289683,396809,-0.0024767753,-0.004419836,0.0043769446
396070728,5505042,-0.0021099052,0.0019500535,-0.00012422937,5373970,-0.077669084,0.20685434,0.05076157,396809,-0.0024843798,-0.0043881796,0.004051918
397075890,5505042,-0.0021638495,0.0019144955,-0.00022763516,5373970,-0.07765206,0.20103833,0.04693872,396809,-0.0024888194,-0.0043595433,0.0037084066
398079810,5505042,-0.0021946603,0.0019520317,-0.00031572796,5373970,-0.0818295,0.19839865,0.044268373,396809,-0.0024885465,-0.004358931,0.0037005316
399079793,5505042,-0.0022504255,0.002009658,-0.00039529553,5373970,-0.08642239,0.19757827,0.034989707,396809,-0.0024885465,-0.004358931,0.0037005316
400083933,5505042,-0.0022682962,0.0019905365,-0.00046137933,5373970,-0.08765664,0.19254622,0.021990603,396809,-0.0024885465,-0.004358931,0.0037005316
401079717,5505042,-0.0022520968,0.0019542524,-0.00053542916,5373970,-0.08797197,0.18777034,0.00861835,396809,-0.0024885465,-0.004358931,0.0037005316
402084033,5505042,-0.0022794255,0.0019580238,-0.0006162909,5373970,-0.08969355,0.18879022,-5.7793637e-05,396809,-0.0024885465,-0.004358931,0.0037005316
403082950,5505042,-0.0023221904,0.0019117997,-0.0007090287,5373970,-0.08899508,0.18837401,0.0071337647,396809,-0.0024885465,-0.004358931,0.0037005316
404088810,5505042,-0.002478881,0.0017453704,-0.0008798816,5373970,-0.1034522,0.18660302,-0.008277448,396809,-0.002594982,-0.004309504,0.003341449
405088804,5505042,-0.0024339778,0.0017265376,-0.0007879231,5373970,-0.10478479,0.18570864,-0.028778486,396809,-0.002535556,-0.004286282,0.0031996616
406087838,5505042,-0.0023518058,0.0017909158,-0.0006161199,5373970,-0.10090871,0.18900172,-0.064456165,396809,-0.0024196156,-0.0042461758,0.0033382194
407087814,5505042,-0.0022278472,0.0018256305,-0.00042157035,5373970,-0.09389448,0.18806832,-0.05807553,396809,-0.0023263854,-0.0041897963,0.0034549865
408096793,5505042,-0.0022168483,0.0018997997,-0.00026913054,5373970,-0.09076209,0.19062105,-0.032109026,396809,-0.0022652787,-0.004135539,0.0034661556
409096796,5505042,-0.002266963,0.0019680934,-0.00010828525,5373970,-0.09163182,0.19910315,-0.004861943,396809,-0.0022132935,-0.004088044,0.0034968844
410101808,5505042,-0.002306168,0.0020285153,8.156677e-06,5373970,-0.09318068,0.2041697,0.009713739,396809,-0.0021887699,-0.004060623,0.003518584
411105886,5505042,-0.0022946927,0.002028727,7.047448e-05,5373970,-0.09480598,0.20355186,0.016998826,396809,-0.0021887699,-0.004060623,0.003518584
412110793,5505042,-0.002244356,0.0020159024,0.00011025034,5373970,-0.09465058,0.20069095,0.02056732,396809,-0.0021887699,-0.004060623,0.003518584
413105947,5505042,-0.0022786842,0.0020600148,0.00013053091,5373970,-0.096463315,0.20513837,0.01523903,396809,-0.0021887699,-0.004060623,0.003518584
414113935,5505042,-0.0022691372,0.002058594,0.00013331925,5373970,-0.09574248,0.20499456,-0.0018776277,396809,-0.0021887699,-0.004060623,0.003518584
415114727,5505042,-0.0021987332,0.0019537462,0.0001329745,5373970,-0.09203659,0.2014514,-0.0145413885,396809,-0.0021887699,-0.004060623,0.003518584
416118802,5505042,-0.002236806,0.0019550894,0.00014776087,5373970,-0.093120195,0.20575228,-0.03155737,396809,-0.0021887699,-0.004060623,0.003518584
417120715,5505042,-0.0021828613,0.0018295737,0.00016712178,5373970,-0.09100217,0.20180576,-0.03305771,396809,-0.0021887699,-0.004060623,0.003518584
418118813,5505042,-0.0021402587,0.0017353507,0.00018859904,5373970,-0.09018305,0.2011217,-0.0337003,396809,-0.0021887699,-0.004060623,0.003518584
419122725,5505042,-0.002142565,0.0016569967,0.00021243395,5373970,-0.090555295,0.20049378,-0.02896814,396809,-0.0021887699,-0.004060623,0.003518584
420119715,5505042,-0.0021392016,0.0015918376,0.00020898686,5373970,-0.09080728,0.2003231,-0.01763093,396809,-0.0021887699,-0.004060623,0.003518584
421122735,5505042,-0.0020922418,0.0015231004,0.000160355,5373970,-0.08921731,0.19913426,-0.008981405,396809,-0.002225589,-0.0040223044,0.0035211723
422126731,5505042,-0.0021315739,0.0016074989,0.0001430817,5373970,-0.08925592,0.20590717,-0.006705653,396809,-0.0022490202,-0.0040178807,0.0037213303
423126874,5505042,-0.0021382787,0.0017056807,9.617515e-05,5373970,-0.09049274,0.20941512,0.013555666,396809,-0.0021570236,-0.004016004,0.003995167
424130812,5505042,-0.002069981,0.0017159003,7.219409e-05,5373970,-0.092184745,0.20485327,0.02165227,396809,-0.0020350544,-0.0040019425,0.004237828
425125803,5505042,-0.002048421,0.0017223302,7.223688e-05,5373970,-0.09425845,0.2027886,-0.0019833336,396809,-0.0019215056,-0.003992496,0.0045091514
426135805,5505042,-0.0020391294,0.0017624369,0.00010144034,5373970,-0.09924509,0.19970427,-0.026264187,396809,-0.0018357093,-0.0039877133,0.004778014
427135805,5505042,-0.0019894848,0.0017624757,0.00015186233,5373970,-0.10438756,0.19421215,-0.04661157,396809,-0.0018126102,-0.003987214,0.0049631023
428134971,5505042,-0.0020038453,0.0018140727,0.00019194525,5373970,-0.10740609,0.19381881,-0.06582908,396809,-0.0018126102,-0.003987214,0.0049631023
429134811,5505042,-0.0020619903,0.0018558967,0.00021958046,5373970,-0.10870609,0.19224976,-0.07056676,396809,-0.0018126102,-0.003987214,0.0049631023
430136732,5505042,-0.0020171637,0.0018530015,0.0002152878,5373970,-0.10828565,0.19208592,-0.06681306,396809,-0.0018126102,-0.003987214,0.0049631023
431143736,5505042,-0.0019347371,0.0017933672,0.00020577772,5373970,-0.10424584,0.18980321,-0.0491953,396809,-0.0018126102,-0.003987214,0.0049631023
432143722,5505042,-0.0019329047,0.0016960908,0.00025455412,5373970,-0.101652056,0.18938617,-0.032563098,396809,-0.0018262116,-0.00398067,0.0049690115
433152746,5505042,-0.0019669235,0.0016054731,0.00036548637,5373970,-0.10514667,0.19157353,-0.02338005,396809,-0.001913299,-0.003961251,0.0050916555
434151732,5505042,-0.0019770646,0.0015743164,0.00043513818,5373970,-0.107435666,0.19049889,0.00849313,396809,-0.0019361246,-0.0039514727,0.005331558
435156851,5505042,-0.0020142766,0.0015623212,0.00047213695,5373970,-0.10978273,0.18958813,0.023559319,396809,-0.0019467557,-0.003933622,0.005500957
436151828,5505042,-0.0019128362,0.0015153439,0.0005226866,5373970,-0.11199535,0.189525,-0.01525424,396809,-0.0019551287,-0.0039015727,0.0056539597
437160791,5505042,-0.0018140323,0.0014594749,0.0005863509,5373970,-0.11601497,0.19062272,-0.055054024,396809,-0.001960628,-0.003879429,0.005872949
438164871,5505042,-0.0016932315,0.0014001202,0.00065654825,5373970,-0.11827383,0.18911162,-0.08370333,396809,-0.0019553462,-0.0038641382,0.006080108
439169751,5505042,-0.0016941034,0.0013571096,0.000690637,5373970,-0.12032379,0.18826726,-0.080241464,396809,-0.0019548384,-0.0038603407,0.006167035
440165024,5505042,-0.0017875277,0.0013073119,0.0007533697,5373970,-0.12301854,0.19020253,-0.08219096,396809,-0.0019423827,-0.0038410933,0.0061790366
441172893,5505042,-0.0018436934,0.0012943214,0.0007803517,5373970,-0.12686093,0.19211975,-0.06786189,396809,-0.0019346687,-0.0038285402,0.006221841
442168730,5505042,-0.001807406,0.0012590116,0.0007135473,5373970,-0.12799795,0.18869536,-0.030604558,396809,-0.0020054416,-0.0037885704,0.0062104044
443173726,5505042,-0.0017791801,0.0013651813,0.00056848675,5373970,-0.12560613,0.19370522,-0.013853305,396809,-0.0021694293,-0.0036980584,0.0060630087
444172014,5505042,-0.0017754363,0.001415112,0.00039541948,5373970,-0.1248927,0.19742031,-0.0043042554,396809,-0.00229901,-0.0035996204,0.005939268
445177804,5505042,-0.0017112765,0.0014174618,0.0002432093,5373970,-0.11673737,0.19700715,0.0093904445,396809,-0.002371717,-0.0035184873,0.0058600567
446172751,5505042,-0.0016891313,0.0014750801,0.00018031092,5373970,-0.11048508,0.2010427,0.011259447,396809,-0.002371717,-0.0035184873,0.0058600567
447177759,5505042,-0.0016576801,0.0015080819,7.430288e-05,5373970,-0.104877666,0.20522167,0.013761856,396809,-0.002371717,-0.0035184873,0.0058600567
448181826,5505042,-0.0016627756,0.0015414469,-3.6869755e-05,5373970,-0.1035381,0.20867138,0.010820212,396809,-0.002371717,-0.0035184873,0.0058600567
449181725,5505042,-0.0016654273,0.0015496426,-0.00014341089,5373970,-0.10426863,0.2064988,-0.0008895477,396809,-0.002371717,-0.0035184873,0.0058600567
450185862,5505042,-0.0016662495,0.0015275218,-0.00024227976,5373970,-0.10316991,0.20647317,-0.008901018,396809,-0.002371717,-0.0035184873,0.0058600567
451184813,5505042,-0.0016628812,0.0014414561,-0.00031727314,5373970,-0.09860907,0.20042618,-0.01277715,396809,-0.002371717,-0.0035184873,0.0058600567
452184723,5505042,-0.0017033536,0.0013888045,-0.0003995239,5373970,-0.09690644,0.20304823,-0.012627269,396809,-0.002371717,-0.0035184873,0.0058600567
453184761,5505042,-0.001721425,0.0013056287,-0.00047757587,5373970,-0.09351483,0.20128053,-0.009035857,396809,-0.002371717,-0.0035184873,0.0058600567
454183814,5505042,-0.0017325294,0.0012252242,-0.0005759533,5373970,-0.09135461,0.2028182,-0.0030718679,396809,-0.002371717,-0.0035184873,0.0058600567
455192800,5505042,-0.0017049853,0.0011264727,-0.00065486494,5373970,-0.08896288,0.19979694,-0.0048261085,396809,-0.002371717,-0.0035184873,0.0058600567
456192874,5505042,-0.0017786627,0.0010013604,-0.0008366313,5373970,-0.090621024,0.20268102,-0.005832922,396809,-0.0023960776,-0.0034739592,0.0057382705
457191873,5505042,-0.0018843568,0.0010080669,-0.0008995328,5373970,-0.0899437,0.20913748,-0.008551791,396809,-0.0024085417,-0.0034095594,0.0056213792
458191726,5505042,-0.0018386793,0.0010836151,-0.00082284806,5373970,-0.084154084,0.20760995,-0.0018596057,396809,-0.0024153204,-0.0033634645,0.005678045
459191968,5505042,-0.0018123975,0.0011635601,-0.00073956884,5373970,-0.083082154,0.20952892,-0.016697144,396809,-0.0024580203,-0.0033188288,0.0057616862
460200715,5505042,-0.0017597041,0.0011914895,-0.0006443843,5373970,-0.078110136,0.20447159,-0.03213776,396809,-0.0025009387,-0.003287914,0.005911999
461200806,5505042,-0.0017604394,0.0012034186,-0.0005521971,5373970,-0.08176871,0.20741454,-0.046959084,396809,-0.0025437162,-0.0032641385,0.0060768547
462199947,5505042,-0.0017102427,0.0011829308,-0.0004602308,5373970,-0.08644695,0.2041518,-0.051445954,396809,-0.002555597,-0.0032578616,0.0061246827
463207889,5505042,-0.0017031519,0.0012190058,-0.0004064605,5373970,-0.0903776,0.20139815,-0.05211561,396809,-0.002555597,-0.0032578616,0.0061246827
464208736,5505042,-0.0017004503,0.0012649447,-0.00034291725,5373970,-0.095778815,0.19798173,-0.04784997,396809,-0.002555597,-0.0032578616,0.0061246827
465208737,5505042,-0.0016941174,0.0012816021,-0.00028681775,5373970,-0.096767806,0.1912934,-0.04188861,396809,-0.002555597,-0.0032578616,0.0061246827
466213813,5505042,-0.0016846205,0.001327538,-0.00023194212,5373970,-0.09986613,0.18999374,-0.035435338,396809,-0.002555597,-0.0032578616,0.0061246827
467217800,5505042,-0.0016916323,0.0013598474,-0.00018231533,5373970,-0.101706296,0.19105169,-0.035277467,396809,-0.002555597,-0.0032578616,0.0061246827
468222880,5505042,-0.0017658198,0.0014202917,-0.0001398427,5373970,-0.10390657,0.19023775,-0.043855015,396809,-0.002555597,-0.0032578616,0.0061246827
469222717,5505042,-0.0017167756,0.0014579043,-8.950615e-05,5373970,-0.1033976,0.18851435,-0.045838647,396809,-0.002555597,-0.0032578616,0.0061246827
470223004,5505042,-0.0016865219,0.0014505424,-4.2802163e-05,5373970,-0.10306752,0.18623114,-0.0331983,396809,-0.002555597,-0.0032578616,0.0061246827
471222795,5505042,-0.0016427357,0.0014126,1.3704091e-06,5373970,-0.10309419,0.18424301,-0.011552854,396809,-0.002555597,-0.0032578616,0.0061246827
472222725,5505042,-0.0016123023,0.0013898546,3.868036e-05,5373970,-0.103446305,0.18341736,0.006578183,396809,-0.002555597,-0.0032578616,0.0061246827
473231732,5505042,-0.0016333648,0.0013624822,7.2379255e-05,5373970,-0.104841426,0.18313542,0.029984701,396809,-0.002555597,-0.0032578616,0.0061246827
474231756,5505042,-0.0016963677,0.001350698,0.00010170319,5373970,-0.10725355,0.185669,0.038627256,396809,-0.002555597,-0.0032578616,0.0061246827
475231831,5505042,-0.0017664143,0.0013086845,0.00011685205,5373970,-0.10813789,0.1852929,0.046019938,396809,-0.002555597,-0.0032578616,0.0061246827
476236877,5505042,-0.0017962963,0.0012484604,0.00012779747,5373970,-0.10769404,0.18322074,0.036576644,396809,-0.002555597,-0.0032578616,0.0061246827
477231767,5505042,-0.001839007,0.001209473,0.000143099,5373970,-0.108689256,0.18351595,0.040627137,396809,-0.002555597,-0.0032578616,0.0061246827
478236892,5505042,-0.0018635549,0.0011794667,0.00015781724,5373970,-0.10835344,0.18210411,0.052088335,396809,-0.002555597,-0.0032578616,0.0061246827
479236791,5505042,-0.001963412,0.001150698,0.00016018785,5373970,-0.10998053,0.18382835,0.056494903,396809,-0.002555597,-0.0032578616,0.0061246827
480241785,5505042,-0.0020719361,0.0011301215,0.00014038211,5373970,-0.11209276,0.18583432,0.039102208,396809,-0.002555597,-0.0032578616,0.0061246827
481245003,5505042,-0.0021616686,0.001065239,9.755173e-05,5373970,-0.114073865,0.18579532,-0.001513514,396809,-0.002555597,-0.0032578616,0.0061246827
482240800,5505042,-0.0022331674,0.0010491958,7.7735254e-05,5373970,-0.11552644,0.18643843,-0.03039249,396809,-0.002555597,-0.0032578616,0.0061246827
483245802,5505042,-0.0022693516,0.001046901,6.385469e-05,5373970,-0.11546616,0.18582018,-0.04499206,396809,-0.002555597,-0.0032578616,0.0061246827
484241850,5505042,-0.002319427,0.0010684006,4.8989827e-05,5373970,-0.11512462,0.18581802,-0.040339865,396809,-0.002555597,-0.0032578616,0.0061246827
485250825,5505042,-0.002330099,0.0010656368,3.4599274e-05,5373970,-0.11410122,0.18476094,-0.02326695,396809,-0.002555597,-0.0032578616,0.0061246827
486250937,5505042,-0.0023664352,0.0010513932,8.315808e-06,5373970,-0.114405766,0.18494503,-0.026132254,396809,-0.002555597,-0.0032578616,0.0061246827
487249873,5505042,-0.0023406763,0.0010076307,-2.4297588e-05,5373970,-0.11293181,0.18218437,-0.023370473,396809,-0.002555597,-0.0032578616,0.0061246827
488250944,5505042,-0.0023551947,0.0010762257,-5.635965e-05,5373970,-0.11363437,0.18302383,-0.029679444,396809,-0.0025543077,-0.0032648572,0.0061848676
491255816,5505042,-0.0022211908,0.0011169636,-7.7859106e-05,5373970,-0.11599135,0.18453522,-0.029226469,396809,-0.0025473903,-0.003273664,0.006392366
492255846,5505042,-0.002182498,0.0011083243,-8.2992214e-05,5373970,-0.116155036,0.1847649,-0.028359164,396809,-0.0025572907,-0.0032757875,0.0064300327
493266009,5505042,-0.0021112096,0.0010803533,-7.95671e-05,5373970,-0.1143891,0.1899206,-0.023744151,396809,-0.0025696463,-0.003270322,0.006409337
494264829,5505042,-0.0020547332,0.0010362754,-7.8670375e-05,5373970,-0.11452787,0.19087647,-0.02391175,396809,-0.002550234,-0.003262978,0.0063747335
495264795,5505042,-0.0019899788,0.001004833,-0.00011925312,5373970,-0.112854674,0.18950301,-0.0235309,396809,-0.0025349595,-0.003262582,0.00633769
496265012,5505042,-0.0019923444,0.0009868845,-0.00021737585,5373970,-0.1120597,0.19178838,-0.021850018,396809,-0.0025349595,-0.003262582,0.00633769
497271734,5505042,-0.001995952,0.0009662981,-0.00030867502,5373970,-0.11009088,0.18856615,-0.020288767,396809,-0.0005069919,-0.00065251644,0.001267538
